{"weights": [[-0.18124467373356942, 0.07250356895470145, 0.19531515241826963, -0.053625536100771955, 0.07260612743875729, 0.008476915532673972, 0.030570291444645233, 0.22695618145041907, -0.24058933982724667, 0.03559825704469079, 0.12466431878784713, -0.15346917765293216, -0.1876411792945922, 0.09906219665481795, -0.3057705221265134, -0.20494853735415414, -0.057054900806913646, -0.0794032949692646, -0.8757369216884328, -0.20053854085301345, -0.06427922877379637, -0.26242684295214513, -0.4508246796158074, -0.07146819001251005, 0.20995788474096425, 0.12166039710473783, 0.4424063906647665, 0.02222779787524271, -0.07337076489659011, -0.39950742386284716, 0.02137294854254094, -0.09261329153138452, -0.28092774690455863, 0.01492141791750075, 0.22422658174594232, 1.1221235906410905, -0.04862659721467469, -0.07856496481233943, -0.052310897086619415, -0.06977380778785762, 0.02222779787524271, 0.016684511045707492, -0.2209268274616468, 0.122595819893711, -0.08164894662662327, -0.09107240565386936, -0.13791574019102762, 0.38379097888724767, -0.11468754171091902, 0.31079341274443134, 0.0919370207410154, 0.021596978587175228, 0.009959547129507335, 0.05822579244941008, 1.0076756674992633, -0.07422664849151288, -0.1965824736503223, -0.12144375913214085, -0.1950780145241979, -0.10872412244700773, 0.02565891060927632, 0.4102659037358499, 0.15211073888111654, 0.1392939329696933, -0.08667979723916928, 0.21849159288839073, -0.07291995827991596, -0.14526750928913607, -0.10348499354732216, -0.08235832338777155, 0.3443161526116709, -0.09912260027467674, -0.4778687226988736, -0.1008025146167572, -0.07337076489659011, -0.271110344281667, 0.010880497445298022, -0.3235688733665225, -0.08164894662662327, 1.2330503671659891, -0.13901592745873287, 0.19267879839901567, -0.06039859896887773, 0.10271574215355789, -0.02364868917935145, -0.11468754171091902, 0.009079946054990615, 0.018651655766556207, -0.0321500767500926, -0.046945070158522915, 0.01516255715719288, -0.05052886661631164, 0.13080891351394294, 0.13392387489022944, -0.22081290478220444, 0.28241714071356383, -0.16123599055564947, 0.04274214645884909, -0.23369683163874694, 0.09097305054699238, -0.17038305184791266, 0.062499999231895614, 0.011782416851561629, -0.11200323090948891, -0.07068106084700135, -0.10540646823800211, -0.04947026561095166, -0.0906710621496158, -0.1422252868983999, -0.22788047582612947, -0.17644658197205806, 0.031289143971631336, -0.05826620723671007, -0.15644502507522307, -0.039222819177086886, -0.1381887802125943, -0.0003196094254996069, 0.050935844152313274, -0.0794032949692646, 0.011782416851561629, -0.08442517327666395, -0.03940521902114273, 0.4193628630398156, 0.21196689620487433, -0.2673645964224047, -0.34569958266279366, 0.017599559620496315, -0.10629388718115877, -0.04309724880713617, 0.05417106523761391, 0.011837289704183782, -0.15965007818419985, 0.20142320066410968, -0.13502177932415255, 0.004815604443762773, -0.08469005651398791, -0.16381925014963059, 0.046242487401578145, -0.08232538082360424, -0.10131649542457849, -0.04862659721467469, -0.0371541964245603, 0.09370273035145975, -0.15429413589739963, 1.1589400117013768, 0.2204547022116333, -0.07993868312286997, -0.21365843180060048, -0.12144375913214085, 0.028625618411964093, 0.0898237394571844, -0.15802716190643096, -0.25541650568196667, 0.09871914396830957, -0.18863490880764666, 0.20283307259389982, 0.016943080960553157, 0.1392939329696933, -0.46864563025501815, 0.34554592076509255, -0.05779782191412222, 0.011777875563029654, 0.1683230553455539, -0.025391230625625025, 0.09404687790034973, -0.163764627085439, -0.08034380816866658, -0.21942562084241338, 0.026687452455417083, 0.3250378734652242, 0.15546459490876371, -0.12491069853841778, -0.19724421165699046, 0.06990086549053316, -0.08293245373383784, -0.02364868917935145, -0.07609313093135939, 0.043782646079817994, -0.06234751464279082, 0.03998501996259096, 0.9359179287149768, 0.00360955674533557, -0.09678684810165354, 0.24448596458990654, 0.049376874900815826, -0.0371541964245603, -0.07411689667101676, 1.5060489450393586, -0.04283785750834242, 0.034094725064823715, 0.8781305306020278, -0.12093123577515953, -0.16101999353084312, 0.17713868809096214, -0.07422664849151288, -0.03907599548073823, -0.06915487601618693, -0.07344398780030957, 0.3148038883196462, 0.014971680914962553, -0.4037015500457469, -0.03136613539323445, 0.19267879839901567, -0.3664348889596949, 0.01960820288365036, -0.06131977727057043, -0.06977380778785762, -0.13146103929979375, -0.4114439442122003, -0.05400833222683134, 0.003423499265182292, 0.1876201871384026, 0.08826219290279667, 0.2368683191339253, -0.02578600261722442, 0.14701025015443206, 0.10585413897471482, -0.18153084357109628, -0.16363521525083372, 0.028111542768206706, 0.005260785229604791, 0.07855419634010183, 0.07907167254910917, -0.1036245888010873, -0.14131847836895836, 0.12406027608498969, 0.09834258445448765, 0.017599559620496315, 0.02165256770577541, 0.19788499123472514, -0.10949165296929249, -0.10686717275587096, 0.24832150415149487, 0.03195406934632813, 0.012814857377208468, 0.0037011598290130378, 0.3610507065865543, -0.5328909650691727, 0.48722103615856627, 0.1503888569548708, -0.10676434934271697, 0.2728825030942199, 0.13493184174372777, 0.019336331723045674, -0.30135791456515226, 0.21085517416994745, 0.0020833035130092994, -0.07880497095009462, -0.3800091190162883, -0.07416717265312661, 0.05254664168850781, -0.052310897086619415, -0.19202225186714622, -0.1381887802125943, -0.08469005651398791, -0.15346917765293216, -0.0377180660098496, 0.2128357551464032, 0.004216604316353544, 0.3645473916578385, 0.0898237394571844, -0.3229106143897355, -0.061512385576008625, -0.08611877705540168, -0.3344200999225731, -0.039222819177086886, -0.12093123577515953, -0.13303320995519086, -0.07578936981905895, 0.14759381370198135, -0.12144375913214085, -0.08164894662662327, 0.013500833986985383, -0.1381887802125943, 0.13493184174372777, 0.0051121042887817495, 0.46325484908260356, 0.0831993935993072, 0.17713868809096214, 0.10271574215355789, 0.30649222287713157, 0.13216292900643542, 0.031324964055751775, -0.22046749291065632, -0.06039859896887773, -0.6566817071979187, 0.14065003229743075, -0.16644188748740243, 0.004610924401833173, -0.059405612749007894, 0.014675874092811092, 0.022687156077116046, 0.3250378734652242, 0.09120512105320415, 0.1476223528171434, -0.17057790428766512, -0.3743567584626528, 0.049376874900815826, -0.667689154735052, -0.07291995827991596, 0.02172919166883189, 0.024233738176282348, -0.14284614588945843, -0.09671503488621297, -0.2371219920124979, -0.10417138372490263, -0.059405612749007894, -0.1008025146167572, -0.05280208602928172, 0.0131124582817501, -0.08457993865274835, -0.19508147408767246, 0.08639327837829282, 0.009079946054990615, 0.23917110403604147, -0.4871847981344016, -0.18460644629930842, -0.2132812715424214, -0.10348499354732216, -0.04884891148000172, 0.07819064207767842, 1.6239044626954051, -0.04916458419960941, -0.07230655920446438, 0.28459638420373745, -0.2516441716879706, -0.10131649542457849, -0.19031414501296426, 0.20165813574571193, -0.08469005651398791, -0.43776129864775093, -0.21942562084241338, -0.03136613539323445, 0.041458920913221654, -0.15823118944069048, -0.10507374355694807, -0.12218137738585415, 0.04101269841652764, 0.029924661294588782, 0.040369253681543614, -0.055631269894169506, -0.15965007818419985, 0.42717883164504744, 0.19267879839901567, -0.06131977727057043, 0.21639200766123803, 1.4271809575722483, 0.20386983352417334, -0.04212769231914284, 0.5626396562525108, -0.08221019950584703, -0.041996917545344584, 0.05273311218429951, 0.025902785257615815, -0.050503342776102765, -0.1259026164162562, 0.006897915108994134, -0.06349558604691465, -0.25407489726819776, 0.028111542768206706, -0.28404910746811207, 0.03643808774185773, -0.05333787153473053, 0.007812469329893632, 0.2767173853378009, 0.03718281701160493, -0.39149726796780726, -0.04625087217927324, -0.41604215875378836, -0.1587014707957536, 0.2388261503006184, -0.06926948704437148, 0.12457854463778777, -0.0636599799345478, -0.00129805270289985, 0.0182978535867761, 0.01956547700284239, 0.015346622208388413, -0.08703130690817946, 0.13128444624216434, 0.41896112239508354, -0.10872412244700773, 0.0469989125131978, -0.06989956135862467, 0.15358590414969936, -0.0907462485752558, -0.05022560295124134, 0.06866494254202912, 0.09034110195982248, 0.04274214645884909, 0.09812275680461321, -0.07141307661616467, -0.07446074814727598, -0.12379998385405243, -0.09704956205849158, -0.08164894662662327, -0.20362247044627726, -0.24816231018785917, 0.22695618145041907, -0.0842237106065197, 0.09687619875814048, 0.13124095505123248, 0.01515787238321502, 0.01627627109599523, 0.008307250442210822, 0.1598891885154942, -0.03056764032258406, 0.24715409395014132, -0.09912260027467674, 0.2748927548120339, -0.0689847852767736, -0.08164894662662327, -0.03064593191005499, 0.10261347262830706, -0.048693475268582864, 0.006372380769819728, -0.05671290729471227, 0.06289770787607098, -0.08033821315220634, 0.08195730362234745, 0.11505777508640277, -0.1997096616330966, 0.10720019087791341, -0.06708772672845896, 0.006919096698675953, 0.05737384906751433, -0.18863490880764666, -0.08611877705540168, -0.21468134254805918, -0.17828823405697738, 0.0014587355121005602, -0.515795348104806, 0.03897840874467862, -0.03763313068898307, 0.08543084379432751, 0.1344886640484363, -0.14904534062690356, -0.16201036062198604, 0.17566003397380722, -0.12449649819093557, -0.12270163121250212, -1.1614969216531301, -0.19505182579386313, -0.09675529769040626, 0.13493184174372777, 0.22577848690495037, -0.03101531364168579, -0.13932235714736954, -0.6310846297882573, -0.16118205047074158, -0.04625087217927324, -0.4037015500457469, 0.09742371504832356, 0.02553839359013234, 0.07791853485311075, 0.02205914519078847, 0.02609839566322279, -0.23358579887839717, -0.10348499354732216, -0.12647443091499994, -0.03940521902114273, 0.10957771973464478, 0.017545415871606105, -0.6694216061735859, 0.012105477805251116, 0.15211073888111654, -0.18460644629930842, -0.15217417833802696, 0.0034871155235384997, -0.15429413589739963, -0.06934864385849425, 0.033198166520533194, 0.03718281701160493, 0.0032276383216137392, -0.039592300990703606, -0.07609313093135939, 0.025961765770780312, -0.1285627970235229, -0.7166855745911922, -0.4252890275137861, -0.16768161888990493, -0.11148298672281344, -0.1213795098386427, 0.0034937833833411825, 0.0560113651934919, -0.07587796215497669, -0.04391326279821303, -0.10686717275587096, -0.12572289049095361, 0.3829833423294163, -0.07422664849151288, -0.07291995827991596, -0.036229277714700206, -0.08235832338777155, -0.19714784002581867, -0.05052886661631164, -0.12491069853841778, -0.052677684430725256, 0.02609839566322279, 0.08076036671122952, 0.02472269191883945, 0.04093790073021214, 0.009959547129507335, -0.07411689667101676, -0.16123599055564947, -0.055591148441401665, 0.14700138737619722, -0.1545466711202446, -0.12218137738585415, 0.011064691079184289, -0.05671290729471227, 0.3148038883196462, 0.18571253116005926, -0.059405612749007894, 0.08262043048690393, -0.25407489726819776, 0.05750775800295232, -0.18397143305034153, 0.005802886102486363, 0.4274179361286955, 0.2388261503006184, 0.016063044965953358, -0.15346917765293216, -0.24320253403223793, 0.025495297080072855, 0.09034110195982248, 0.0030647214146863606, -0.13468287511879473, -0.04862659721467469, 0.0898237394571844, -0.03648710741247201, -0.14616469135972923, -0.10949165296929249, -0.09671503488621297, -0.24058933982724667, 0.011709233207770052, -0.04212769231914284, 0.01492141791750075, -0.21155789893967458, -0.13468434691784295, -0.25567310894347406, 0.15968568566531968, 0.004130740259876187, 0.1599232082110102, -0.0842237106065197, 0.1022994949243933, -0.09485799875816578, -0.11723106179376376, 0.05525467984067385, 0.03531763557028633, 0.34554592076509255, 0.03355397601157691, 0.003591959744545772, -0.24383452784123494, 0.0010975453468626889, -0.08436133211617443, -0.050503342776102765, 0.11188186102452378, -0.23369683163874694, -0.09107240565386936, -0.07337076489659011, 0.14945847934688092, -0.32037662887791624, 0.27018219540015675, 0.22577848690495037, 0.0327658008970269, -0.3664348889596949, -0.30986493645077934, 0.04101269841652764, 0.04586152424399941, 0.041590855545501675, -0.15429413589739963, 0.06967527884887058, 0.03531763557028633, 0.052196791326445564, 0.005802886102486363, 0.30649222287713157, -0.2884430223336971, 0.09604106828576434, -0.1522304168035321, 0.05245540223711745, 0.02395095994635285, 0.025683184513779586, -0.06131977727057043, -0.28404910746811207, -0.08235832338777155, -0.1965824736503223, 0.4369756714592803, 0.0560113651934919, 0.25143905277539985, 0.188591785828077, 0.014971680914962553, -0.05826620723671007, -0.04916458419960941, -0.15847822878719117, 0.0009136833166293323, 0.18560950693820755, -0.10540646823800211, -0.1859023616774899, 0.013500833986985383, 0.07791853485311075, -0.1008025146167572, -0.23007538719230633, -0.07783690964051136, -0.14607343339845655, 0.16710345157842302, 0.025961765770780312, 0.31079341274443134, -0.1950780145241979, 0.011064691079184289, -0.19202225186714622, 0.09906219665481795, 0.16333145659102077, -0.23021101298958815, 0.17515760621109433, 0.14700138737619722, 0.4249786586700835, -0.1587014707957536, -0.2627800967793508, -0.16201036062198604, 0.014372975886013741, 0.003186323321563856, -0.12218137738585415, -0.37600296009350886, -0.14942709487496425, -0.1564753723236626, 0.2237213780406457, 0.4612251181064081, -0.10949165296929249, 0.006613973142670648, -0.5328909650691727, -0.07230655920446438, 0.21639200766123803, 0.09720000496809217, -0.07941720456201133, 0.122595819893711, -0.018230899385693916, -0.07856496481233943, 0.1666582475402317, -0.055591148441401665, 0.043782646079817994, -0.8282588489915056, -0.0867637936490933, 0.192454421941436, -0.07587796215497669, 0.05648581431811144, 1.1144920661044222, 0.07731563943080964, 0.013349403070596644, -0.057054900806913646, -0.0842237106065197, 0.023679101679695454, 0.2288065584473138, -0.02364868917935145, -0.08892074809461309, -0.07146819001251005, 0.09404687790034973, -0.20123484708765135, -0.15802716190643096, 0.1678954952300217, -0.25482721830727, -0.1008025146167572, -0.1781462771948256, -0.12270163121250212, -0.4098621784097896, -0.15644502507522307, -0.23021101298958815, -0.09675529769040626, -0.09258669268375995, -0.15965007818419985, -0.10676434934271697, -0.18064950711479463, -0.061512385576008625, 0.013641342690975054, -0.15514279866116049, 0.13493184174372777, 0.15806173195579698, -0.16644188748740243, 0.5275542767073148, 0.11872647644556164, 0.24454837222494835, 0.011837289704183782, -0.10131649542457849, 0.09029734285971983, -0.18153084357109628, -0.022930516937277632, -0.04787155992855681, -0.13791574019102762, 0.017706078299857837, -0.07856496481233943, -0.07856496481233943, -0.28092774690455863, 0.08774868450202844, -0.22788047582612947, 0.03914948092556363, 0.017794119982064364, -0.052677684430725256, 0.01245586261325269, -0.10776007306156288, 0.12094142524591985, -0.06039859896887773, 0.04581798517759909, -0.07443520314929762, 0.24444621466473565, -0.06770507013522202, 0.04365776009205757, -0.059405612749007894, -0.11148298672281344, -0.056390888447063574, 0.010973224959909328, -0.02647716292294286, 0.24776578957977555, -0.028207176240163077, 0.014618037727667923, -0.13500660385436186, 0.050935844152313274, -0.11723106179376376, 0.28891183603612425, -0.09818418801143722, -0.06791887712590293, 0.8290567198946197, -0.05265914097321113, -0.30286915900762346, 0.4848638492360178, 0.5942887992945497, -0.6346170769506313, 0.014199952196741127, 1.0933289864365794, 0.020862936892444544, 0.07453542247816301, -0.21539316430460864, -0.25096247834107205, -0.0689847852767736, 0.011805749534733189, -0.18890180949749866, -0.22788047582612947, -0.14526750928913607, 0.004130740259876187, 0.010880497445298022, -0.05022560295124134, -0.064971735769098, 0.122595819893711, -0.08442517327666395, 0.0002761214303885185, 0.006897915108994134, 0.18424712895313325, -0.2417124725398294, 0.012210038842378972, 0.08858310186963965, -0.10899067636717347, 0.006897915108994134, 0.1741954533817483, -0.07950615912228463, -0.1950780145241979, -0.07941720456201133, 0.10932334006322023, -0.06494136894141292, -0.07730051259519737, 0.17467114575186327, -0.1616243283353879, -0.1682544659160959, 0.11836643590822793, -0.0906710621496158, 0.16333145659102077, -0.29356384927183327, 0.22339806004080914, 0.02205914519078847, -0.5255940548878544, -0.036229277714700206, -0.03940521902114273, 0.03181090801999326, -0.1965824736503223, 0.0551436012675637, 0.012210038842378972, 0.08856386785143508, 0.11925635418316409, -0.22788047582612947, -0.037954652894175066, 0.3183969504305323, 0.0753439301457618, 0.11351409889381153, -0.2132812715424214, -0.18046105983428543, -0.29422965121327915, -0.11203377283530577, -0.2417124725398294, -0.20564749428697665, -0.21514260995201195, -0.07941720456201133, 1.9809679731968883, 1.1698546809614143, 1.6110893133889888, 1.3196749781629578, 2.383112148101127, 1.6776152966252293, -0.09107240565386936, -0.3062041323914771, 0.0874390389161881, 0.21196689620487433, -0.15202821032910235, -0.2417124725398294, -0.27676360651981546, -0.14526750928913607, 0.1689494420080224, -0.49111515066552064, -0.11893839198746704, -0.10507374355694807, 0.948036144856566, -0.26231826851268386, -0.1356636489444356, -0.4307516704204226, -0.13901592745873287, -0.10447385376854923, 3.4689871926049713, 1.0877992119856221, 0.024996707056723605]], "bias": [-1.4772974520838946], "vocabulary": {"what": 789, "is": 346, "your": 814, "name": 442, "how": 321, "old": 462, "are": 35, "you": 813, "where": 791, "do": 187, "live": 385, "when": 790, "did": 180, "graduate": 282, "why": 794, "leave": 377, "the": 721, "company": 122, "can": 79, "explain": 226, "experience": 224, "have": 296, "any": 26, "references": 574, "could": 144, "please": 516, "clarify": 101, "that": 720, "skills": 652, "handle": 291, "stress": 681, "would": 807, "be": 54, "willing": 797, "to": 730, "relocate": 578, "manage": 405, "team": 708, "available": 47, "on": 463, "weekends": 784, "programming": 543, "languages": 363, "know": 361, "which": 792, "project": 545, "most": 432, "proud": 548, "of": 457, "stay": 676, "motivated": 433, "ever": 213, "worked": 803, "remotely": 582, "this": 727, "first": 245, "interview": 342, "greatest": 286, "strength": 680, "weakness": 779, "tell": 713, "me": 412, "about": 2, "challenge": 87, "overcame": 483, "interested": 339, "in": 330, "role": 605, "leadership": 372, "describe": 173, "last": 366, "previous": 531, "manager": 406, "say": 620, "prioritize": 535, "tasks": 705, "start": 671, "approach": 33, "problem": 537, "solving": 660, "motivates": 434, "give": 277, "an": 20, "example": 216, "teamwork": 711, "career": 83, "goals": 279, "conflict": 130, "should": 646, "we": 778, "hire": 309, "gap": 272, "resume": 599, "comfortable": 116, "with": 799, "travel": 743, "soon": 662, "join": 353, "salary": 616, "expectations": 221, "hear": 300, "us": 757, "certifications": 86, "hold": 313, "questions": 557, "for": 256, "yourself": 815, "changing": 94, "jobs": 352, "learned": 375, "from": 267, "mistakes": 425, "player": 514, "environment": 209, "prefer": 523, "work": 801, "consider": 132, "different": 181, "achievements": 6, "tight": 728, "deadlines": 160, "final": 238, "answer": 25, "provide": 549, "reference": 573, "will": 796, "multiple": 439, "think": 726, "job": 351, "good": 281, "fit": 246, "who": 793, "gave": 275, "opportunity": 470, "qualified": 554, "open": 467, "flexible": 250, "hours": 320, "other": 476, "roles": 606, "next": 449, "month": 429, "recommend": 569, "prepare": 526, "remote": 581, "opening": 468, "inspired": 338, "apply": 30, "was": 775, "commit": 117, "long": 390, "term": 715, "relocation": 580, "issue": 347, "train": 740, "new": 448, "employees": 204, "expected": 222, "growth": 288, "five": 247, "years": 809, "ready": 563, "discuss": 183, "now": 453, "short": 645, "notice": 452, "there": 723, "anything": 27, "want": 772, "ask": 40, "select": 629, "tools": 737, "use": 758, "productivity": 542, "see": 627, "year": 808, "mentor": 420, "attend": 43, "training": 741, "session": 635, "reason": 565, "might": 421, "resign": 591, "early": 199, "like": 382, "working": 804, "independently": 333, "hobbies": 312, "outside": 480, "keep": 356, "up": 750, "trends": 744, "learn": 374, "skill": 651, "large": 365, "or": 472, "small": 654, "teams": 710, "every": 214, "day": 158, "overtime": 484, "if": 325, "required": 588, "it": 349, "acceptable": 4, "call": 77, "after": 9, "best": 61, "way": 777, "contact": 134, "balance": 52, "personal": 502, "life": 380, "background": 50, "verification": 765, "pending": 498, "obligations": 456, "kind": 359, "excites": 219, "difficult": 182, "teammate": 709, "face": 228, "major": 402, "our": 478, "culture": 149, "preferred": 525, "location": 388, "choose": 99, "field": 235, "many": 409, "second": 625, "here": 305, "plan": 507, "move": 435, "closer": 104, "switched": 695, "feel": 234, "confident": 128, "hope": 315, "accomplish": 5, "meet": 417, "share": 638, "feedback": 233, "summarize": 688, "starting": 673, "vouch": 770, "period": 501, "improve": 328, "take": 699, "challenges": 88, "preferences": 524, "mission": 424, "contribute": 137, "able": 1, "pressure": 530, "right": 604, "time": 729, "change": 90, "responsibility": 595, "make": 403, "communicate": 119, "clients": 102, "finish": 243, "passionate": 494, "collaboration": 111, "expect": 220, "referred": 575, "position": 518, "onboarding": 464, "projects": 546, "led": 378, "benefits": 60, "others": 477, "perform": 500, "well": 786, "organize": 473, "complete": 124, "assignment": 41, "industry": 334, "type": 747, "wanted": 773, "does": 190, "store": 679, "fix": 248, "error": 210, "current": 150, "president": 529, "france": 260, "find": 242, "nearest": 444, "gas": 274, "station": 675, "fail": 229, "holiday": 314, "one": 465, "better": 62, "again": 10, "more": 430, "mind": 422, "sharing": 640, "details": 177, "code": 106, "machine": 398, "learning": 376, "actually": 7, "submit": 685, "form": 257, "told": 733, "meeting": 418, "meaning": 413, "update": 751, "document": 188, "laptop": 364, "has": 295, "battery": 53, "show": 647, "file": 236, "still": 678, "going": 280, "get": 276, "refund": 576, "feature": 232, "customized": 153, "another": 24, "option": 471, "ingredients": 337, "need": 446, "recipe": 568, "much": 438, "package": 488, "cost": 142, "having": 297, "discussion": 184, "put": 551, "my": 441, "keys": 357, "approved": 34, "budget": 70, "wear": 780, "data": 155, "report": 587, "possible": 519, "reschedule": 590, "really": 564, "necessary": 445, "people": 499, "safest": 615, "place": 506, "invented": 343, "electric": 202, "car": 81, "typescript": 748, "makes": 404, "founded": 259, "finals": 241, "recursion": 570, "taking": 701, "look": 391, "shipping": 643, "packages": 489, "runs": 614, "event": 212, "crash": 145, "study": 683, "exam": 215, "confirm": 129, "schedule": 623, "solve": 659, "puzzle": 552, "upload": 755, "manages": 407, "database": 156, "plants": 511, "dying": 198, "tomorrow": 734, "talk": 703, "later": 368, "library": 379, "idea": 324, "production": 541, "refactor": 572, "function": 269, "happening": 294, "responsible": 596, "trust": 745, "these": 724, "results": 598, "route": 611, "airport": 13, "help": 301, "table": 697, "switch": 694, "coffee": 108, "compatible": 123, "windows": 798, "calculate": 76, "total": 738, "documentation": 189, "link": 384, "decided": 162, "requirements": 589, "so": 656, "delays": 164, "needed": 447, "push": 550, "deadline": 159, "hand": 290, "check": 97, "logs": 389, "experimental": 225, "deploy": 170, "save": 618, "backup": 51, "charge": 95, "testing": 717, "warnings": 774, "verify": 766, "numbers": 455, "read": 561, "handwriting": 293, "demo": 168, "rule": 612, "valid": 763, "users": 761, "office": 459, "located": 387, "sent": 632, "invitation": 345, "server": 633, "go": 278, "down": 193, "format": 258, "borrow": 65, "roll": 607, "back": 49, "sign": 648, "estimate": 211, "big": 63, "dataset": 157, "changelog": 92, "maintains": 400, "measure": 415, "success": 686, "platform": 512, "supports": 692, "debug": 161, "explaining": 227, "concept": 126, "potential": 521, "problems": 538, "technology": 712, "changes": 93, "return": 600, "null": 454, "memory": 419, "process": 539, "postpone": 520, "launch": 370, "during": 197, "finalize": 239, "department": 169, "handles": 292, "security": 626, "okay": 461, "updated": 752, "diagram": 179, "design": 174, "scalable": 621, "planning": 509, "rollout": 609, "maintenance": 401, "alice": 14, "york": 812, "city": 100, "graduated": 283, "2019": 0, "lead": 371, "at": 42, "am": 18, "python": 553, "and": 22, "javascript": 350, "love": 396, "fast": 231, "paced": 487, "enjoy": 208, "collaborating": 110, "relocated": 579, "recently": 567, "completed": 125, "certification": 85, "aws": 48, "challenging": 89, "managing": 408, "budgets": 71, "value": 764, "communication": 120, "transparency": 742, "often": 460, "volunteer": 769, "community": 121, "focus": 254, "continuous": 135, "improvement": 329, "within": 800, "two": 746, "weeks": 785, "looking": 392, "developed": 178, "increased": 332, "efficiency": 201, "helped": 302, "hires": 310, "believe": 59, "lifelong": 381, "detail": 176, "oriented": 475, "ownership": 486, "respect": 594, "deliver": 165, "quality": 555, "excited": 218, "proactive": 536, "issues": 348, "software": 657, "engineering": 207, "adapt": 8, "priorities": 534, "diverse": 186, "perspectives": 503, "by": 75, "meaningful": 414, "pride": 533, "helping": 303, "customers": 152, "cross": 148, "functional": 270, "before": 57, "organized": 474, "ahead": 12, "constructive": 133, "contributed": 138, "source": 664, "always": 17, "commitments": 118, "under": 749, "moved": 436, "set": 636, "tackling": 698, "full": 268, "degree": 163, "user": 760, "driven": 196, "went": 787, "yesterday": 810, "he": 298, "finished": 244, "includes": 331, "free": 261, "delivery": 167, "dog": 191, "very": 767, "friendly": 266, "she": 641, "lives": 386, "town": 739, "they": 725, "hiking": 308, "weekend": 783, "send": 630, "files": 237, "sun": 690, "sets": 637, "around": 37, "pm": 517, "summer": 689, "no": 451, "bug": 72, "easily": 200, "taught": 706, "herself": 306, "play": 513, "guitar": 289, "all": 15, "tests": 718, "growing": 287, "steadily": 677, "restaurant": 597, "closes": 105, "money": 428, "spoke": 668, "their": 722, "flight": 251, "arrives": 38, "morning": 431, "workshop": 806, "informative": 335, "language": 362, "cannot": 80, "release": 577, "yet": 811, "running": 613, "out": 479, "space": 666, "deployment": 172, "kids": 358, "playing": 515, "already": 16, "signed": 649, "contract": 136, "follow": 255, "agile": 11, "practices": 522, "cat": 84, "likes": 383, "sleep": 653, "desk": 175, "just": 355, "reading": 562, "book": 64, "low": 397, "plans": 510, "medicine": 416, "overall": 482, "shared": 639, "her": 304, "photos": 505, "uploaded": 756, "product": 540, "amazing": 19, "reviews": 603, "fixed": 249, "week": 782, "tea": 707, "over": 481, "doing": 192, "great": 285, "works": 805, "as": 39, "engineer": 206, "built": 74, "app": 28, "react": 560, "cook": 141, "dishes": 185, "weather": 781, "hot": 317, "today": 731, "spending": 667, "nature": 443, "drew": 194, "beautiful": 55, "painting": 490, "review": 602, "application": 29, "phone": 504, "charging": 96, "late": 367, "night": 450, "test": 716, "promising": 547, "been": 56, "waiting": 771, "reply": 586, "starts": 674, "hour": 319, "marathon": 410, "together": 732, "bought": 66, "pair": 491, "headphones": 299, "water": 776, "too": 735, "cold": 109, "swim": 693, "friend": 265, "college": 114, "human": 322, "resources": 593, "created": 147, "custom": 151, "solution": 658, "his": 311, "presentation": 527, "impressive": 327, "friday": 264, "looks": 393, "modern": 427, "fresh": 263, "crashed": 146, "abroad": 3, "kitchen": 360, "renovation": 584, "received": 566, "email": 203, "own": 485, "shop": 644, "garden": 273, "colorful": 115, "flowers": 253, "drive": 195, "password": 495, "changed": 91, "audit": 46, "successfully": 687, "appointment": 31, "dark": 154, "mode": 426, "sense": 631, "humor": 323, "shipped": 642, "children": 98, "quietly": 558, "used": 759, "analysis": 21, "hotel": 318, "offers": 458, "breakfast": 68, "joined": 354, "quarter": 556, "appreciate": 32, "support": 691, "music": 440, "sounds": 663, "made": 399, "significant": 650, "progress": 544, "internet": 341, "connection": 131, "stable": 669, "price": 532, "seems": 628, "fair": 230, "ten": 714, "minutes": 423, "replaced": 585, "broken": 69, "parts": 493, "updates": 753, "being": 58, "rolled": 608, "saw": 619, "movie": 437, "room": 610, "floor": 252, "started": 672, "french": 262, "hosted": 316, "online": 466, "task": 704, "takes": 700, "care": 82, "grandparents": 284, "parents": 492, "visited": 768, "conference": 127, "lost": 394, "invested": 344, "renewable": 583, "energy": 205, "studying": 684, "exams": 217, "delivered": 166, "satisfied": 617, "latest": 369, "than": 719, "servers": 634, "were": 788, "upgraded": 754, "talented": 702, "presented": 528, "convincing": 140, "argument": 36, "smoothly": 655, "android": 23, "payment": 497, "system": 696, "expense": 223, "deployed": 171, "patch": 496, "reduces": 571, "operating": 469, "costs": 143, "reached": 559, "wider": 795, "audience": 45, "using": 762, "coding": 107, "closed": 103, "interface": 340, "revealed": 601, "some": 661, "hidden": 307, "bugs": 73, "leading": 373, "collected": 113, "sources": 665, "scheduled": 624, "implemented": 326, "stricter": 682, "controls": 139, "took": 736, "break": 67, "workday": 802, "finalized": 240, "stakeholders": 670, "marketing": 411, "campaign": 78, "gained": 271, "lot": 395, "attention": 44, "colleagues": 112, "resolve": 592, "planned": 508, "scale": 622, "infrastructure": 336}}